<?xml version="1.0"?>
<opencv_storage>
<cascade>
  <stageType>BOOST</stageType>
  <featureType>HAAR</featureType>
  <height>20</height>
  <width>20</width>
  <stageParams>
    <boostType>GAB</boostType>
    <minHitRate>9.9500000476837158e-01</minHitRate>
    <maxFalseAlarm>5.0000000000000000e-01</maxFalseAlarm>
    <weightTrimRate>9.4999999999999996e-01</weightTrimRate>
    <maxDepth>1</maxDepth>
    <maxWeakCount>100</maxWeakCount></stageParams>
  <featureParams>
    <maxCatCount>0</maxCatCount>
    <featSize>1</featSize>
    <mode>BASIC</mode></featureParams>
  <stageNum>8</stageNum>
  <stages>
    <!-- stage 0 -->
    <_>
      <maxWeakCount>4</maxWeakCount>
      <stageThreshold>-2.1762895584106445e-01</stageThreshold>
      <weakClassifiers>
        <_>
          <internalNodes>
            0 -1 1 1.0200214385986328e-01</internalNodes>
          <leafValues>
            -7.0114940404891968e-01 8.6904764175415039e-01</leafValues></_>
        <_>
          <internalNodes>
            0 -1 4 -7.4294498190283775e-03</internalNodes>
          <leafValues>
            7.2494858503341675e-01 -9.0464770793914795e-01</leafValues></_>
        <_>
          <internalNodes>
            0 -1 3 3.2209735363721848e-02</internalNodes>
          <leafValues>
            -7.9948896169662476e-01 7.8233724832534790e-01</leafValues></_>
        <_>
          <internalNodes>
            0 -1 13 -5.6481204228475690e-04</internalNodes>
          <leafValues>
            6.0583090782165527e-01 -9.9135470390319824e-01</leafValues></_></weakClassifiers></_>
    <!-- stage 1 -->
    <_>
      <maxWeakCount>5</maxWeakCount>
      <stageThreshold>-8.1899875402450562e-01</stageThreshold>
      <weakClassifiers>
        <_>
          <internalNodes>
            0 -1 21 -2.0955102518200874e-03</internalNodes>
          <leafValues>
            8.1920903921127319e-01 -7.6923078298568726e-01</leafValues></_>
        <_>
          <internalNodes>
            0 -1 2 1.1793282628059387e-01</internalNodes>
          <leafValues>
            -7.0547306537628174e-01 7.7669531106948853e-01</leafValues></_>
        <_>
          <internalNodes>
            0 -1 11 7.9597906733397394e-05</internalNodes>
          <leafValues>
            6.6657239198684692e-01 -7.9546511173248291e-01</leafValues></_>
        <_>
          <internalNodes>
            0 -1 14 1.8091097444994375e-05</internalNodes>
          <leafValues>
            5.4135560989379883e-01 -1.</leafValues></_>
        <_>
          <internalNodes>
            0 -1 0 1.0856746695935726e-02</internalNodes>
          <leafValues>
            -6.1753243207931519e-01 9.0981459617614746e-01</leafValues></_></weakClassifiers></_>
    <!-- stage 2 -->
    <_>
      <maxWeakCount>5</maxWeakCount>
      <stageThreshold>-2.4962742626667023e-01</stageThreshold>
      <weakClassifiers>
        <_>
          <internalNodes>
            0 -1 16 6.0373975429683924e-04</internalNodes>
          <leafValues>
            -9.3939393758773804e-01 7.7777779102325439e-01</leafValues></_>
        <_>
          <internalNodes>
            0 -1 12 -3.0987681820988655e-03</internalNodes>
          <leafValues>
            -8.3043432235717773e-01 6.1757212877273560e-01</leafValues></_>
        <_>
          <internalNodes>
            0 -1 19 7.2086986619979143e-05</internalNodes>
          <leafValues>
            4.9703246355056763e-01 -1.</leafValues></_>
        <_>
          <internalNodes>
            0 -1 22 -2.7053469239035621e-05</internalNodes>
          <leafValues>
            -9.7980731725692749e-01 4.1616955399513245e-01</leafValues></_>
        <_>
          <internalNodes>
            0 -1 8 2.4681102484464645e-02</internalNodes>
          <leafValues>
            -7.1309554576873779e-01 6.0699880123138428e-01</leafValues></_></weakClassifiers></_>
    <!-- stage 3 -->
    <_>
      <maxWeakCount>3</maxWeakCount>
      <stageThreshold>1.4498983323574066e-01</stageThreshold>
      <weakClassifiers>
        <_>
          <internalNodes>
            0 -1 15 -8.2124228356406093e-05</internalNodes>
          <leafValues>
            6.6502463817596436e-01 -9.6153843402862549e-01</leafValues></_>
        <_>
          <internalNodes>
            0 -1 17 8.0126395914703608e-04</internalNodes>
          <leafValues>
            -9.6635746955871582e-01 5.5267244577407837e-01</leafValues></_>
        <_>
          <internalNodes>
            0 -1 7 -1.0841038601938635e-04</internalNodes>
          <leafValues>
            -8.7561511993408203e-01 5.5385589599609375e-01</leafValues></_></weakClassifiers></_>
    <!-- stage 4 -->
    <_>
      <maxWeakCount>3</maxWeakCount>
      <stageThreshold>1.3104188442230225e-01</stageThreshold>
      <weakClassifiers>
        <_>
          <internalNodes>
            0 -1 10 1.5510022640228271e-02</internalNodes>
          <leafValues>
            -9.0163934230804443e-01 7.2164946794509888e-01</leafValues></_>
        <_>
          <internalNodes>
            0 -1 5 -3.4400503500364721e-04</internalNodes>
          <leafValues>
            -9.8235011100769043e-01 5.6433689594268799e-01</leafValues></_>
        <_>
          <internalNodes>
            0 -1 6 4.8484434955753386e-05</internalNodes>
          <leafValues>
            4.6834433078765869e-01 -9.7332918643951416e-01</leafValues></_></weakClassifiers></_>
    <!-- stage 5 -->
    <_>
      <maxWeakCount>3</maxWeakCount>
      <stageThreshold>1.0557402670383453e-01</stageThreshold>
      <weakClassifiers>
        <_>
          <internalNodes>
            0 -1 6 -3.9048441976774484e-05</internalNodes>
          <leafValues>
            -9.6491229534149170e-01 7.0707070827484131e-01</leafValues></_>
        <_>
          <internalNodes>
            0 -1 20 1.5826977789402008e-02</internalNodes>
          <leafValues>
            -9.3141549825668335e-01 5.4679840803146362e-01</leafValues></_>
        <_>
          <internalNodes>
            0 -1 23 1.5218430780805647e-04</internalNodes>
          <leafValues>
            5.2368789911270142e-01 -1.</leafValues></_></weakClassifiers></_>
    <!-- stage 6 -->
    <_>
      <maxWeakCount>1</maxWeakCount>
      <stageThreshold>6.9999998807907104e-01</stageThreshold>
      <weakClassifiers>
        <_>
          <internalNodes>
            0 -1 9 2.2152258083224297e-02</internalNodes>
          <leafValues>
            6.9999998807907104e-01 -1.</leafValues></_></weakClassifiers></_>
    <!-- stage 7 -->
    <_>
      <maxWeakCount>1</maxWeakCount>
      <stageThreshold>7.0854270458221436e-01</stageThreshold>
      <weakClassifiers>
        <_>
          <internalNodes>
            0 -1 18 -5.3780153393745422e-04</internalNodes>
          <leafValues>
            -1. 7.0854270458221436e-01</leafValues></_></weakClassifiers></_></stages>
  <features>
    <_>
      <rects>
        <_>
          0 15 6 1 -1.</_>
        <_>
          3 15 3 1 2.</_></rects>
      <tilted>0</tilted></_>
    <_>
      <rects>
        <_>
          1 0 18 8 -1.</_>
        <_>
          1 4 18 4 2.</_></rects>
      <tilted>0</tilted></_>
    <_>
      <rects>
        <_>
          1 0 19 8 -1.</_>
        <_>
          1 4 19 4 2.</_></rects>
      <tilted>0</tilted></_>
    <_>
      <rects>
        <_>
          1 1 9 19 -1.</_>
        <_>
          4 1 3 19 3.</_></rects>
      <tilted>0</tilted></_>
    <_>
      <rects>
        <_>
          1 13 10 6 -1.</_>
        <_>
          1 16 10 3 2.</_></rects>
      <tilted>0</tilted></_>
    <_>
      <rects>
        <_>
          3 4 3 9 -1.</_>
        <_>
          3 7 3 3 3.</_></rects>
      <tilted>0</tilted></_>
    <_>
      <rects>
        <_>
          3 10 3 1 -1.</_>
        <_>
          4 10 1 1 3.</_></rects>
      <tilted>0</tilted></_>
    <_>
      <rects>
        <_>
          3 12 2 2 -1.</_>
        <_>
          3 13 2 1 2.</_></rects>
      <tilted>0</tilted></_>
    <_>
      <rects>
        <_>
          4 0 13 4 -1.</_>
        <_>
          4 2 13 2 2.</_></rects>
      <tilted>0</tilted></_>
    <_>
      <rects>
        <_>
          4 6 14 8 -1.</_>
        <_>
          11 6 7 8 2.</_></rects>
      <tilted>0</tilted></_>
    <_>
      <rects>
        <_>
          4 9 15 9 -1.</_>
        <_>
          4 12 15 3 3.</_></rects>
      <tilted>0</tilted></_>
    <_>
      <rects>
        <_>
          4 10 2 3 -1.</_>
        <_>
          5 10 1 3 2.</_></rects>
      <tilted>0</tilted></_>
    <_>
      <rects>
        <_>
          5 7 12 3 -1.</_>
        <_>
          11 7 6 3 2.</_></rects>
      <tilted>0</tilted></_>
    <_>
      <rects>
        <_>
          5 8 6 5 -1.</_>
        <_>
          7 8 2 5 3.</_></rects>
      <tilted>0</tilted></_>
    <_>
      <rects>
        <_>
          5 10 1 6 -1.</_>
        <_>
          5 13 1 3 2.</_></rects>
      <tilted>0</tilted></_>
    <_>
      <rects>
        <_>
          5 10 4 2 -1.</_>
        <_>
          7 10 2 2 2.</_></rects>
      <tilted>0</tilted></_>
    <_>
      <rects>
        <_>
          7 7 4 4 -1.</_>
        <_>
          9 7 2 4 2.</_></rects>
      <tilted>0</tilted></_>
    <_>
      <rects>
        <_>
          7 10 6 1 -1.</_>
        <_>
          9 10 2 1 3.</_></rects>
      <tilted>0</tilted></_>
    <_>
      <rects>
        <_>
          8 10 4 1 -1.</_>
        <_>
          10 10 2 1 2.</_></rects>
      <tilted>0</tilted></_>
    <_>
      <rects>
        <_>
          9 10 2 1 -1.</_>
        <_>
          10 10 1 1 2.</_></rects>
      <tilted>0</tilted></_>
    <_>
      <rects>
        <_>
          11 1 9 17 -1.</_>
        <_>
          14 1 3 17 3.</_></rects>
      <tilted>0</tilted></_>
    <_>
      <rects>
        <_>
          11 8 3 4 -1.</_>
        <_>
          12 8 1 4 3.</_></rects>
      <tilted>0</tilted></_>
    <_>
      <rects>
        <_>
          14 9 1 2 -1.</_>
        <_>
          14 10 1 1 2.</_></rects>
      <tilted>0</tilted></_>
    <_>
      <rects>
        <_>
          14 11 2 2 -1.</_>
        <_>
          14 12 2 1 2.</_></rects>
      <tilted>0</tilted></_></features></cascade>
</opencv_storage>
